<?xml version="1.0"?>
<opencv_storage>
<my_svm type_id="opencv-ml-svm">
  <svm_type>C_SVC</svm_type>
  <kernel><type>RBF</type>
    <gamma>1.0000000000000001e-005</gamma></kernel>
  <C>1.0000000000000001e-001</C>
  <term_criteria><epsilon>9.9999999747524271e-007</epsilon>
    <iterations>100000</iterations></term_criteria>
  <var_all>2</var_all>
  <var_count>2</var_count>
  <class_count>2</class_count>
  <class_labels type_id="opencv-matrix">
    <rows>1</rows>
    <cols>2</cols>
    <dt>i</dt>
    <data>
      -1 1</data></class_labels>
  <sv_total>162</sv_total>
  <support_vectors>
    <_>
      225. 331.</_>
    <_>
      161. 396.</_>
    <_>
      64. 408.</_>
    <_>
      75. 506.</_>
    <_>
      490. 132.</_>
    <_>
      215. 293.</_>
    <_>
      415. 195.</_>
    <_>
      283. 293.</_>
    <_>
      377. 253.</_>
    <_>
      412. 223.</_>
    <_>
      69. 442.</_>
    <_>
      209. 411.</_>
    <_>
      31. 452.</_>
    <_>
      111. 454.</_>
    <_>
      266. 254.</_>
    <_>
      488. 130.</_>
    <_>
      199. 469.</_>
    <_>
      509. 133.</_>
    <_>
      85. 398.</_>
    <_>
      291. 251.</_>
    <_>
      425. 233.</_>
    <_>
      481. 206.</_>
    <_>
      110. 460.</_>
    <_>
      329. 181.</_>
    <_>
      496. 130.</_>
    <_>
      400. 232.</_>
    <_>
      449. 223.</_>
    <_>
      385. 105.</_>
    <_>
      301. 277.</_>
    <_>
      194. 375.</_>
    <_>
      215. 470.</_>
    <_>
      332. 288.</_>
    <_>
      416. 143.</_>
    <_>
      164. 439.</_>
    <_>
      411. 193.</_>
    <_>
      159. 452.</_>
    <_>
      113. 489.</_>
    <_>
      404. 228.</_>
    <_>
      148. 467.</_>
    <_>
      270. 352.</_>
    <_>
      169. 341.</_>
    <_>
      53. 500.</_>
    <_>
      488. 133.</_>
    <_>
      369. 215.</_>
    <_>
      327. 318.</_>
    <_>
      193. 506.</_>
    <_>
      217. 429.</_>
    <_>
      187. 443.</_>
    <_>
      171. 511.</_>
    <_>
      87. 497.</_>
    <_>
      372. 273.</_>
    <_>
      57. 495.</_>
    <_>
      257. 280.</_>
    <_>
      426. 237.</_>
    <_>
      158. 305.</_>
    <_>
      215. 382.</_>
    <_>
      173. 418.</_>
    <_>
      223. 366.</_>
    <_>
      387. 250.</_>
    <_>
      467. 2.</_>
    <_>
      509. 170.</_>
    <_>
      463. 124.</_>
    <_>
      322. 315.</_>
    <_>
      260. 312.</_>
    <_>
      427. 211.</_>
    <_>
      283. 305.</_>
    <_>
      100. 380.</_>
    <_>
      199. 501.</_>
    <_>
      496. 119.</_>
    <_>
      243. 351.</_>
    <_>
      475. 186.</_>
    <_>
      240. 286.</_>
    <_>
      281. 220.</_>
    <_>
      391. 113.</_>
    <_>
      382. 185.</_>
    <_>
      262. 293.</_>
    <_>
      195. 483.</_>
    <_>
      498. 169.</_>
    <_>
      295. 317.</_>
    <_>
      477. 148.</_>
    <_>
      478. 208.</_>
    <_>
      161. 385.</_>
    <_>
      444. 37.</_>
    <_>
      417. 90.</_>
    <_>
      92. 336.</_>
    <_>
      261. 148.</_>
    <_>
      78. 427.</_>
    <_>
      195. 208.</_>
    <_>
      6. 379.</_>
    <_>
      368. 23.</_>
    <_>
      88. 340.</_>
    <_>
      153. 243.</_>
    <_>
      113. 292.</_>
    <_>
      332. 49.</_>
    <_>
      253. 250.</_>
    <_>
      296. 192.</_>
    <_>
      143. 265.</_>
    <_>
      287. 100.</_>
    <_>
      307. 142.</_>
    <_>
      371. 119.</_>
    <_>
      355. 201.</_>
    <_>
      358. 50.</_>
    <_>
      39. 359.</_>
    <_>
      408. 33.</_>
    <_>
      181. 370.</_>
    <_>
      354. 93.</_>
    <_>
      223. 151.</_>
    <_>
      233. 166.</_>
    <_>
      65. 494.</_>
    <_>
      4. 490.</_>
    <_>
      266. 146.</_>
    <_>
      37. 498.</_>
    <_>
      443. 80.</_>
    <_>
      46. 349.</_>
    <_>
      379. 82.</_>
    <_>
      397. 51.</_>
    <_>
      472. 7.</_>
    <_>
      267. 291.</_>
    <_>
      108. 272.</_>
    <_>
      171. 344.</_>
    <_>
      239. 282.</_>
    <_>
      279. 97.</_>
    <_>
      460. 50.</_>
    <_>
      200. 344.</_>
    <_>
      47. 489.</_>
    <_>
      353. 146.</_>
    <_>
      245. 232.</_>
    <_>
      333. 145.</_>
    <_>
      36. 400.</_>
    <_>
      170. 276.</_>
    <_>
      317. 45.</_>
    <_>
      154. 238.</_>
    <_>
      332. 33.</_>
    <_>
      139. 262.</_>
    <_>
      344. 173.</_>
    <_>
      511. 15.</_>
    <_>
      151. 233.</_>
    <_>
      89. 324.</_>
    <_>
      73. 417.</_>
    <_>
      198. 200.</_>
    <_>
      62. 439.</_>
    <_>
      330. 169.</_>
    <_>
      288. 162.</_>
    <_>
      216. 342.</_>
    <_>
      137. 401.</_>
    <_>
      57. 470.</_>
    <_>
      226. 164.</_>
    <_>
      297. 100.</_>
    <_>
      248. 163.</_>
    <_>
      398. 4.</_>
    <_>
      17. 339.</_>
    <_>
      122. 265.</_>
    <_>
      30. 388.</_>
    <_>
      396. 65.</_>
    <_>
      111. 323.</_>
    <_>
      211. 297.</_>
    <_>
      57. 346.</_>
    <_>
      15. 364.</_>
    <_>
      261. 199.</_>
    <_>
      73. 327.</_>
    <_>
      37. 301.</_>
    <_>
      111. 320.</_></support_vectors>
  <decision_functions>
    <_>
      <sv_count>162</sv_count>
      <rho>9.2569293159501225e-003</rho>
      <alpha>
        1.0000000000000001e-001 1.0000000000000001e-001
        1.0000000000000001e-001 1.0000000000000001e-001
        1.0000000000000001e-001 1.0000000000000001e-001
        1.0000000000000001e-001 1.0000000000000001e-001
        1.0000000000000001e-001 1.0000000000000001e-001
        1.0000000000000001e-001 1.0000000000000001e-001
        1.0000000000000001e-001 1.0000000000000001e-001
        1.0000000000000001e-001 1.0000000000000001e-001
        1.0000000000000001e-001 1.0000000000000001e-001
        1.0000000000000001e-001 1.0000000000000001e-001
        1.0000000000000001e-001 1.0000000000000001e-001
        1.0000000000000001e-001 1.0000000000000001e-001
        1.0000000000000001e-001 1.0000000000000001e-001
        1.0000000000000001e-001 1.0000000000000001e-001
        1.0000000000000001e-001 1.0000000000000001e-001
        1.0000000000000001e-001 1.0000000000000001e-001
        1.0000000000000001e-001 1.0000000000000001e-001
        1.0000000000000001e-001 1.0000000000000001e-001
        1.0000000000000001e-001 1.0000000000000001e-001
        1.0000000000000001e-001 1.0000000000000001e-001
        1.0000000000000001e-001 1.0000000000000001e-001
        1.0000000000000001e-001 1.0000000000000001e-001
        1.0000000000000001e-001 1.0000000000000001e-001
        1.0000000000000001e-001 1.0000000000000001e-001
        1.0000000000000001e-001 1.0000000000000001e-001
        1.0000000000000001e-001 1.0000000000000001e-001
        1.0000000000000001e-001 1.0000000000000001e-001
        1.0000000000000001e-001 1.0000000000000001e-001
        1.0000000000000001e-001 1.0000000000000001e-001
        1.0000000000000001e-001 1.0000000000000001e-001
        1.0000000000000001e-001 1.0000000000000001e-001
        1.0000000000000001e-001 1.0000000000000001e-001
        1.0000000000000001e-001 1.0000000000000001e-001
        1.0000000000000001e-001 1.0000000000000001e-001
        1.0000000000000001e-001 1.0000000000000001e-001
        1.0000000000000001e-001 1.0000000000000001e-001
        1.0000000000000001e-001 1.0000000000000001e-001
        1.0000000000000001e-001 1.0000000000000001e-001
        1.0000000000000001e-001 1.0000000000000001e-001
        1.0000000000000001e-001 1.0000000000000001e-001
        6.4776991206724954e-003 -1.0000000000000001e-001
        -1.0000000000000001e-001 -1.0000000000000001e-001
        -1.0000000000000001e-001 -1.0000000000000001e-001
        -1.0000000000000001e-001 -1.0000000000000001e-001
        -1.0000000000000001e-001 -1.0000000000000001e-001
        -1.0000000000000001e-001 -1.0000000000000001e-001
        -1.0000000000000001e-001 -1.0000000000000001e-001
        -1.0000000000000001e-001 -1.0000000000000001e-001
        -1.0000000000000001e-001 -1.0000000000000001e-001
        -1.0000000000000001e-001 -1.0000000000000001e-001
        -1.0000000000000001e-001 -1.0000000000000001e-001
        -1.0000000000000001e-001 -1.0000000000000001e-001
        -1.0000000000000001e-001 -1.0000000000000001e-001
        -5.4701302688318430e-002 -1.0000000000000001e-001
        -1.0000000000000001e-001 -1.0000000000000001e-001
        -1.0000000000000001e-001 -1.0000000000000001e-001
        -1.0000000000000001e-001 -1.0000000000000001e-001
        -1.0000000000000001e-001 -1.0000000000000001e-001
        -1.0000000000000001e-001 -1.0000000000000001e-001
        -1.0000000000000001e-001 -1.0000000000000001e-001
        -1.0000000000000001e-001 -1.0000000000000001e-001
        -1.0000000000000001e-001 -1.0000000000000001e-001
        -1.0000000000000001e-001 -1.0000000000000001e-001
        -1.0000000000000001e-001 -1.0000000000000001e-001
        -1.0000000000000001e-001 -1.0000000000000001e-001
        -1.0000000000000001e-001 -1.0000000000000001e-001
        -1.0000000000000001e-001 -1.0000000000000001e-001
        -1.0000000000000001e-001 -1.0000000000000001e-001
        -1.0000000000000001e-001 -1.0000000000000001e-001
        -1.0000000000000001e-001 -1.0000000000000001e-001
        -1.0000000000000001e-001 -1.0000000000000001e-001
        -1.0000000000000001e-001 -1.0000000000000001e-001
        -1.0000000000000001e-001 -1.0000000000000001e-001
        -1.0000000000000001e-001 -1.0000000000000001e-001
        -1.0000000000000001e-001 -1.0000000000000001e-001
        -1.0000000000000001e-001 -1.0000000000000001e-001
        -1.0000000000000001e-001 -1.0000000000000001e-001
        -1.0000000000000001e-001 -1.0000000000000001e-001
        -1.0000000000000001e-001 -1.0000000000000001e-001
        -1.0000000000000001e-001 -1.0000000000000001e-001
        -5.1776396432354072e-002 -1.0000000000000001e-001</alpha>
      <index>
        0 1 2 3 4 5 6 7 8 9 10 11 12 13 14 15 16 17 18 19 20 21 22 23 24
        25 26 27 28 29 30 31 32 33 34 35 36 37 38 39 40 41 42 43 44 45
        46 47 48 49 50 51 52 53 54 55 56 57 58 59 60 61 62 63 64 65 66
        67 68 69 70 71 72 73 74 75 76 77 78 79 80 81 82 83 84 85 86 87
        88 89 90 91 92 93 94 95 96 97 98 99 100 101 102 103 104 105 106
        107 108 109 110 111 112 113 114 115 116 117 118 119 120 121 122
        123 124 125 126 127 128 129 130 131 132 133 134 135 136 137 138
        139 140 141 142 143 144 145 146 147 148 149 150 151 152 153 154
        155 156 157 158 159 160 161</index></_></decision_functions></my_svm>
</opencv_storage>
