<?xml version="1.0"?>
<opencv_storage>
<my_svm type_id="opencv-ml-svm">
  <svm_type>C_SVC</svm_type>
  <kernel><type>RBF</type>
    <gamma>1.0000000000000001e-005</gamma></kernel>
  <C>5.0000000000000000e-001</C>
  <term_criteria><epsilon>2.2204460492503131e-016</epsilon>
    <iterations>30000</iterations></term_criteria>
  <var_all>2</var_all>
  <var_count>2</var_count>
  <class_count>2</class_count>
  <class_labels type_id="opencv-matrix">
    <rows>1</rows>
    <cols>2</cols>
    <dt>i</dt>
    <data>
      -1 1</data></class_labels>
  <sv_total>34</sv_total>
  <support_vectors>
    <_>
      16. 451.</_>
    <_>
      172. 310.</_>
    <_>
      326. 134.</_>
    <_>
      361. 74.</_>
    <_>
      454. -20.</_>
    <_>
      295. 173.</_>
    <_>
      229. 215.</_>
    <_>
      456. 29.</_>
    <_>
      165. 317.</_>
    <_>
      21. 404.</_>
    <_>
      325. 166.</_>
    <_>
      181. 311.</_>
    <_>
      459. 1.</_>
    <_>
      230. 202.</_>
    <_>
      470. -39.</_>
    <_>
      -29. 338.</_>
    <_>
      121. 337.</_>
    <_>
      506. 107.</_>
    <_>
      507. 142.</_>
    <_>
      476. 187.</_>
    <_>
      174. 404.</_>
    <_>
      466. 150.</_>
    <_>
      328. 335.</_>
    <_>
      359. 216.</_>
    <_>
      125. 511.</_>
    <_>
      277. 332.</_>
    <_>
      395. 261.</_>
    <_>
      164. 509.</_>
    <_>
      126. 497.</_>
    <_>
      432. 223.</_>
    <_>
      173. 442.</_>
    <_>
      238. 341.</_>
    <_>
      320. 303.</_>
    <_>
      489. 186.</_></support_vectors>
  <decision_functions>
    <_>
      <sv_count>34</sv_count>
      <rho>-1.3514523073981688e-001</rho>
      <alpha>
        5.0000000000000000e-001 5.0000000000000000e-001
        5.0000000000000000e-001 5.0000000000000000e-001
        5.0000000000000000e-001 5.0000000000000000e-001
        5.0000000000000000e-001 5.0000000000000000e-001
        5.0000000000000000e-001 5.0000000000000000e-001
        5.0000000000000000e-001 5.0000000000000000e-001
        5.0000000000000000e-001 5.0000000000000000e-001
        4.0299329184937410e-001 1.1188481842773337e-001
        5.0000000000000000e-001 -5.0000000000000000e-001
        -5.0000000000000000e-001 -5.0000000000000000e-001
        -5.0000000000000000e-001 -5.0000000000000000e-001
        -1.4878110277107472e-002 -5.0000000000000000e-001
        -5.0000000000000000e-001 -5.0000000000000000e-001
        -5.0000000000000000e-001 -5.0000000000000000e-001
        -5.0000000000000000e-001 -5.0000000000000000e-001
        -5.0000000000000000e-001 -5.0000000000000000e-001
        -5.0000000000000000e-001 -5.0000000000000000e-001</alpha>
      <index>
        0 1 2 3 4 5 6 7 8 9 10 11 12 13 14 15 16 17 18 19 20 21 22 23 24
        25 26 27 28 29 30 31 32 33</index></_></decision_functions></my_svm>
</opencv_storage>
